0.34726243
-0.64554391
-0.82305939
-0.33693976
0.1645859
-0.51812584
-0.54096193
-0.16017218
-3.21358796
-2.3959032
0.0750911
-0.11107088
-0.39560309
-0.69941181
0.03263838
-0.56763933
-0.259851
-0.50057784
-0.27352901
-0.63767684
0.31073931
0.32227059
-0.187456
-0.58320911
-0.25620785
-4.04117485
-0.49970135
0.53924977
-0.82863628
1.22199208
-0.33880525
-0.35650973
-0.47296892
1.69489022
-0.21065049
-0.05604844
0.72908933
-0.7345277
0.45894651
-0.88270921
0.22472668
0.01831903
-0.16570573
-1.06075324
-0.33673943
0.59738409
-0.55095707
0.51821219
-1.19692844
-2.53653242
-0.03994031
0.03279026
1.39375815
-1.16764739
-0.18210494
-0.71720408
-0.40377121
-0.58276201
-0.30748373
-0.96588085
-0.79394996
0.09788519
-0.75846829
2.27601938
0.25942095
0.36741094
-0.30228967
-0.15090971
-0.46332057
-0.85742758
-0.68696017
-1.07102015
-1.57109522
-0.8339403
-1.73538592
-0.1869493
-0.16474347
-0.06675084
-0.46522432
-0.05937093
0.30737039
-0.49787784
-2.5163968
0.80719084
-1.08087107
-0.75871477
-1.11314096
-0.47193688
-0.5534561
-0.53240685
-2.20981844
-1.09327837
0.09394176
-0.75307052
-1.17818823
-0.09377215
0.1857053
-1.34121525
-2.97212107
-0.49008725
-0.88996059
-1.46461151
-1.31310362
-1.64097451
-0.61070356
0.05307992
-0.60892632
-1.90948149
